<?xml version="1.0"?>
<opencv_storage>
<stage10>
  <maxWeakCount>35</maxWeakCount>
  <stageThreshold>-1.5147082805633545e+00</stageThreshold>
  <weakClassifiers>
    <_>
      <internalNodes>
        0 -1 61518 -3.5866968333721161e-02</internalNodes>
      <leafValues>
        2.0672477781772614e-01 -4.2350059747695923e-01</leafValues></_>
    <_>
      <internalNodes>
        0 -1 53216 -1.5905334148555994e-03</internalNodes>
      <leafValues>
        2.8683599829673767e-01 -3.4207645058631897e-01</leafValues></_>
    <_>
      <internalNodes>
        0 -1 41093 -2.0134799182415009e-02</internalNodes>
      <leafValues>
        5.9195822477340698e-01 -1.4407712221145630e-01</leafValues></_>
    <_>
      <internalNodes>
        0 -1 32334 -6.3342519570142031e-04</internalNodes>
      <leafValues>
        1.5897397696971893e-01 -4.0753212571144104e-01</leafValues></_>
    <_>
      <internalNodes>
        0 -1 52335 3.8689682260155678e-03</internalNodes>
      <leafValues>
        -1.3283772766590118e-01 4.3299588561058044e-01</leafValues></_>
    <_>
      <internalNodes>
        0 -1 70454 -7.6816696673631668e-03</internalNodes>
      <leafValues>
        1.7032605409622192e-01 -3.1871205568313599e-01</leafValues></_>
    <_>
      <internalNodes>
        0 -1 46250 -4.2610466480255127e-03</internalNodes>
      <leafValues>
        9.8105907440185547e-02 -5.4123634099960327e-01</leafValues></_>
    <_>
      <internalNodes>
        0 -1 56691 -4.2030741460621357e-03</internalNodes>
      <leafValues>
        4.0172329545021057e-01 -1.3939109444618225e-01</leafValues></_>
    <_>
      <internalNodes>
        0 -1 67493 -1.0436372831463814e-02</internalNodes>
      <leafValues>
        5.9425431489944458e-01 -6.6945269703865051e-02</leafValues></_>
    <_>
      <internalNodes>
        0 -1 65359 1.5519504435360432e-02</internalNodes>
      <leafValues>
        -1.0118299722671509e-01 5.2286124229431152e-01</leafValues></_>
    <_>
      <internalNodes>
        0 -1 4433 -2.0428173243999481e-02</internalNodes>
      <leafValues>
        4.9448907375335693e-01 -1.2480056285858154e-01</leafValues></_>
    <_>
      <internalNodes>
        0 -1 43275 -1.5569899696856737e-03</internalNodes>
      <leafValues>
        -3.9125594496726990e-01 1.3581462204456329e-01</leafValues></_>
    <_>
      <internalNodes>
        0 -1 12415 2.2215910255908966e-02</internalNodes>
      <leafValues>
        7.4309401214122772e-02 -5.3852289915084839e-01</leafValues></_>
    <_>
      <internalNodes>
        0 -1 48341 -1.6967169940471649e-03</internalNodes>
      <leafValues>
        -6.9021135568618774e-01 5.0882611423730850e-02</leafValues></_>
    <_>
      <internalNodes>
        0 -1 70971 1.3533122837543488e-03</internalNodes>
      <leafValues>
        -1.4226971566677094e-01 3.0689141154289246e-01</leafValues></_>
    <_>
      <internalNodes>
        0 -1 77602 -2.1142037585377693e-03</internalNodes>
      <leafValues>
        -5.6332802772521973e-01 8.9861080050468445e-02</leafValues></_>
    <_>
      <internalNodes>
        0 -1 57900 1.4292224310338497e-02</internalNodes>
      <leafValues>
        9.9643923342227936e-02 -4.3039202690124512e-01</leafValues></_>
    <_>
      <internalNodes>
        0 -1 69708 -1.4509902335703373e-02</internalNodes>
      <leafValues>
        4.5905900001525879e-01 -1.0177589952945709e-01</leafValues></_>
    <_>
      <internalNodes>
        0 -1 36269 1.7370211426168680e-03</internalNodes>
      <leafValues>
        -1.5003368258476257e-01 2.7528780698776245e-01</leafValues></_>
    <_>
      <internalNodes>
        0 -1 22033 5.6969471275806427e-02</internalNodes>
      <leafValues>
        7.1625694632530212e-02 -5.3778254985809326e-01</leafValues></_>
    <_>
      <internalNodes>
        0 -1 73147 1.8750281014945358e-04</internalNodes>
      <leafValues>
        -4.0366604924201965e-01 9.6166744828224182e-02</leafValues></_>
    <_>
      <internalNodes>
        0 -1 24283 1.0708210058510303e-02</internalNodes>
      <leafValues>
        6.6301256418228149e-02 -5.7652980089187622e-01</leafValues></_>
    <_>
      <internalNodes>
        0 -1 61683 3.9177564904093742e-03</internalNodes>
      <leafValues>
        5.3504448384046555e-02 -6.1312699317932129e-01</leafValues></_>
    <_>
      <internalNodes>
        0 -1 64412 8.0105271190404892e-03</internalNodes>
      <leafValues>
        -9.0301617980003357e-02 4.3362012505531311e-01</leafValues></_>
    <_>
      <internalNodes>
        0 -1 27036 5.0466263201087713e-04</internalNodes>
      <leafValues>
        1.4101074635982513e-01 -2.7246451377868652e-01</leafValues></_>
    <_>
      <internalNodes>
        0 -1 56453 1.5618815086781979e-03</internalNodes>
      <leafValues>
        -1.6333402693271637e-01 2.3885004222393036e-01</leafValues></_>
    <_>
      <internalNodes>
        0 -1 42301 -7.8851625323295593e-02</internalNodes>
      <leafValues>
        5.4487735033035278e-01 -9.1567493975162506e-02</leafValues></_>
    <_>
      <internalNodes>
        0 -1 45719 -2.1110512316226959e-02</internalNodes>
      <leafValues>
        -6.6261565685272217e-01 8.4276914596557617e-02</leafValues></_>
    <_>
      <internalNodes>
        0 -1 47299 -6.0156811960041523e-03</internalNodes>
      <leafValues>
        -6.5196174383163452e-01 4.5400008559226990e-02</leafValues></_>
    <_>
      <internalNodes>
        0 -1 36662 -3.4744190634228289e-04</internalNodes>
      <leafValues>
        1.8714907765388489e-01 -2.2382520139217377e-01</leafValues></_>
    <_>
      <internalNodes>
        0 -1 57389 -4.2050168849527836e-04</internalNodes>
      <leafValues>
        2.7633553743362427e-01 -1.6962528228759766e-01</leafValues></_>
    <_>
      <internalNodes>
        0 -1 52352 -2.1358286030590534e-03</internalNodes>
      <leafValues>
        1.9863653182983398e-01 -2.0417024195194244e-01</leafValues></_>
    <_>
      <internalNodes>
        0 -1 6917 -3.2605419401079416e-03</internalNodes>
      <leafValues>
        -6.3746744394302368e-01 6.2814757227897644e-02</leafValues></_>
    <_>
      <internalNodes>
        0 -1 19302 -6.0472921468317509e-03</internalNodes>
      <leafValues>
        3.1521672010421753e-01 -1.3142044842243195e-01</leafValues></_>
    <_>
      <internalNodes>
        0 -1 64292 -2.2567391395568848e-02</internalNodes>
      <leafValues>
        8.1736272573471069e-01 -4.5629296451807022e-02</leafValues></_></weakClassifiers></stage10>
</opencv_storage>
