<?xml version="1.0"?>
<opencv_storage>
<stage4>
  <maxWeakCount>19</maxWeakCount>
  <stageThreshold>-1.4606456756591797e+00</stageThreshold>
  <weakClassifiers>
    <_>
      <internalNodes>
        0 -1 70581 3.7481458857655525e-03</internalNodes>
      <leafValues>
        -5.2436876296997070e-01 3.4677943587303162e-01</leafValues></_>
    <_>
      <internalNodes>
        0 -1 37127 1.0006375610828400e-02</internalNodes>
      <leafValues>
        -4.1151839494705200e-01 3.9553725719451904e-01</leafValues></_>
    <_>
      <internalNodes>
        0 -1 65095 -1.2445876374840736e-02</internalNodes>
      <leafValues>
        3.1444570422172546e-01 -4.6201464533805847e-01</leafValues></_>
    <_>
      <internalNodes>
        0 -1 41093 -1.6198094934225082e-02</internalNodes>
      <leafValues>
        7.5814253091812134e-01 -1.7280665040016174e-01</leafValues></_>
    <_>
      <internalNodes>
        0 -1 5064 -2.4987118318676949e-02</internalNodes>
      <leafValues>
        2.1123233437538147e-01 -5.2689826488494873e-01</leafValues></_>
    <_>
      <internalNodes>
        0 -1 42994 -1.7424253746867180e-03</internalNodes>
      <leafValues>
        -6.7607110738754272e-01 1.4558491110801697e-01</leafValues></_>
    <_>
      <internalNodes>
        0 -1 57395 1.0237004607915878e-03</internalNodes>
      <leafValues>
        -5.0995159149169922e-01 1.9100341200828552e-01</leafValues></_>
    <_>
      <internalNodes>
        0 -1 69317 -4.2627841234207153e-02</internalNodes>
      <leafValues>
        2.7606907486915588e-01 -3.8523966073989868e-01</leafValues></_>
    <_>
      <internalNodes>
        0 -1 67315 1.0890429839491844e-02</internalNodes>
      <leafValues>
        6.4069584012031555e-02 -7.9939639568328857e-01</leafValues></_>
    <_>
      <internalNodes>
        0 -1 32127 1.5514699742197990e-02</internalNodes>
      <leafValues>
        1.4605079591274261e-01 -5.1463133096694946e-01</leafValues></_>
    <_>
      <internalNodes>
        0 -1 48507 3.2418500632047653e-04</internalNodes>
      <leafValues>
        -3.5383480787277222e-01 1.9805304706096649e-01</leafValues></_>
    <_>
      <internalNodes>
        0 -1 68265 -1.2354483827948570e-02</internalNodes>
      <leafValues>
        3.7844994664192200e-01 -1.8836489319801331e-01</leafValues></_>
    <_>
      <internalNodes>
        0 -1 65565 -2.6906072162091732e-03</internalNodes>
      <leafValues>
        3.6833417415618896e-01 -1.7435628175735474e-01</leafValues></_>
    <_>
      <internalNodes>
        0 -1 53551 1.7948977649211884e-02</internalNodes>
      <leafValues>
        8.7608329951763153e-02 -7.6747328042984009e-01</leafValues></_>
    <_>
      <internalNodes>
        0 -1 26144 3.6168415099382401e-03</internalNodes>
      <leafValues>
        -1.8399050831794739e-01 3.5013130307197571e-01</leafValues></_>
    <_>
      <internalNodes>
        0 -1 47691 -4.3320739641785622e-03</internalNodes>
      <leafValues>
        4.3396082520484924e-01 -1.4814798533916473e-01</leafValues></_>
    <_>
      <internalNodes>
        0 -1 47923 -4.6924571506679058e-05</internalNodes>
      <leafValues>
        1.8333783745765686e-01 -3.9979591965675354e-01</leafValues></_>
    <_>
      <internalNodes>
        0 -1 63501 -7.9249376431107521e-03</internalNodes>
      <leafValues>
        3.6072695255279541e-01 -1.9581849873065948e-01</leafValues></_>
    <_>
      <internalNodes>
        0 -1 18835 -7.6701310463249683e-03</internalNodes>
      <leafValues>
        3.8438630104064941e-01 -1.4830072224140167e-01</leafValues></_></weakClassifiers></stage4>
</opencv_storage>
