<?xml version="1.0"?>
<opencv_storage>
<stage1>
  <maxWeakCount>7</maxWeakCount>
  <stageThreshold>-1.1495282649993896e+00</stageThreshold>
  <weakClassifiers>
    <_>
      <internalNodes>
        0 -1 57593 3.0655504087917507e-04</internalNodes>
      <leafValues>
        4.8203843832015991e-01 -9.1419142484664917e-01</leafValues></_>
    <_>
      <internalNodes>
        0 -1 53445 2.9750738758593798e-04</internalNodes>
      <leafValues>
        2.2259064018726349e-01 -7.7873498201370239e-01</leafValues></_>
    <_>
      <internalNodes>
        0 -1 55242 9.2916097491979599e-03</internalNodes>
      <leafValues>
        -3.8862326741218567e-01 4.9476701021194458e-01</leafValues></_>
    <_>
      <internalNodes>
        0 -1 36126 -5.1054999232292175e-02</internalNodes>
      <leafValues>
        8.3724236488342285e-01 -2.1346740424633026e-01</leafValues></_>
    <_>
      <internalNodes>
        0 -1 33165 -7.5463645160198212e-02</internalNodes>
      <leafValues>
        6.0974925756454468e-01 -3.0412134528160095e-01</leafValues></_>
    <_>
      <internalNodes>
        0 -1 57392 2.0882216631434858e-04</internalNodes>
      <leafValues>
        2.3010092973709106e-01 -7.8294456005096436e-01</leafValues></_>
    <_>
      <internalNodes>
        0 -1 57392 -1.8650284619070590e-04</internalNodes>
      <leafValues>
        -7.3945355415344238e-01 2.1818353235721588e-01</leafValues></_></weakClassifiers></stage1>
</opencv_storage>
