<?xml version="1.0"?>
<opencv_storage>
<stage5>
  <maxWeakCount>14</maxWeakCount>
  <stageThreshold>-1.1828752756118774e+00</stageThreshold>
  <weakClassifiers>
    <_>
      <internalNodes>
        0 -1 135250 5.4539483971893787e-03</internalNodes>
      <leafValues>
        -4.4156560301780701e-01 2.5572520494461060e-01</leafValues></_>
    <_>
      <internalNodes>
        0 -1 118976 -1.5001589781604707e-04</internalNodes>
      <leafValues>
        -8.4891343116760254e-01 1.1436384171247482e-01</leafValues></_>
    <_>
      <internalNodes>
        0 -1 92332 5.3137643262743950e-03</internalNodes>
      <leafValues>
        -2.4597495794296265e-01 4.4185590744018555e-01</leafValues></_>
    <_>
      <internalNodes>
        0 -1 89200 -3.3824071288108826e-02</internalNodes>
      <leafValues>
        5.0406956672668457e-01 -2.0496721565723419e-01</leafValues></_>
    <_>
      <internalNodes>
        0 -1 67686 -1.8377904780209064e-04</internalNodes>
      <leafValues>
        3.5321494936943054e-01 -3.5233357548713684e-01</leafValues></_>
    <_>
      <internalNodes>
        0 -1 111121 -7.7386363409459591e-04</internalNodes>
      <leafValues>
        -9.2392247915267944e-01 1.1978270858526230e-01</leafValues></_>
    <_>
      <internalNodes>
        0 -1 73641 -5.8563509956002235e-03</internalNodes>
      <leafValues>
        5.7316106557846069e-01 -1.5394251048564911e-01</leafValues></_>
    <_>
      <internalNodes>
        0 -1 101003 -5.5773016065359116e-02</internalNodes>
      <leafValues>
        5.8026820421218872e-01 -1.6287827491760254e-01</leafValues></_>
    <_>
      <internalNodes>
        0 -1 119597 -1.0175745410379022e-04</internalNodes>
      <leafValues>
        -7.7433222532272339e-01 1.1893568933010101e-01</leafValues></_>
    <_>
      <internalNodes>
        0 -1 97984 -9.0643037110567093e-03</internalNodes>
      <leafValues>
        4.8767206072807312e-01 -2.0764540135860443e-01</leafValues></_>
    <_>
      <internalNodes>
        0 -1 119597 1.6173219773918390e-04</internalNodes>
      <leafValues>
        1.3637118041515350e-01 -8.4721368551254272e-01</leafValues></_>
    <_>
      <internalNodes>
        0 -1 111453 -4.3186155380681157e-04</internalNodes>
      <leafValues>
        3.2033640146255493e-01 -2.9433047771453857e-01</leafValues></_>
    <_>
      <internalNodes>
        0 -1 119950 -5.3079682402312756e-04</internalNodes>
      <leafValues>
        2.7129796147346497e-01 -4.4590842723846436e-01</leafValues></_>
    <_>
      <internalNodes>
        0 -1 14168 -2.9330086708068848e-01</internalNodes>
      <leafValues>
        -7.9531139135360718e-01 1.4938689768314362e-01</leafValues></_></weakClassifiers></stage5>
</opencv_storage>
