<?xml version="1.0"?>
<opencv_storage>
<stage6>
  <maxWeakCount>15</maxWeakCount>
  <stageThreshold>-1.3065145015716553e+00</stageThreshold>
  <weakClassifiers>
    <_>
      <internalNodes>
        0 -1 126348 1.9356663688085973e-04</internalNodes>
      <leafValues>
        -4.5276293158531189e-01 1.7666302621364594e-01</leafValues></_>
    <_>
      <internalNodes>
        0 -1 119596 -5.5936619173735380e-04</internalNodes>
      <leafValues>
        -9.2945587635040283e-01 9.5035582780838013e-02</leafValues></_>
    <_>
      <internalNodes>
        0 -1 156953 -4.4098142534494400e-03</internalNodes>
      <leafValues>
        4.8617273569107056e-01 -2.0755393803119659e-01</leafValues></_>
    <_>
      <internalNodes>
        0 -1 120361 1.3483104703482240e-04</internalNodes>
      <leafValues>
        1.3853459060192108e-01 -6.2040948867797852e-01</leafValues></_>
    <_>
      <internalNodes>
        0 -1 120361 -7.2556591476313770e-05</internalNodes>
      <leafValues>
        -4.9624291062355042e-01 1.7785309255123138e-01</leafValues></_>
    <_>
      <internalNodes>
        0 -1 122416 1.2944717891514301e-03</internalNodes>
      <leafValues>
        -4.1267976164817810e-01 2.3408748209476471e-01</leafValues></_>
    <_>
      <internalNodes>
        0 -1 112492 -4.7565117711201310e-04</internalNodes>
      <leafValues>
        -8.7567579746246338e-01 1.4318963885307312e-01</leafValues></_>
    <_>
      <internalNodes>
        0 -1 112172 -1.9352005620021373e-04</internalNodes>
      <leafValues>
        3.3379057049751282e-01 -2.9203367233276367e-01</leafValues></_>
    <_>
      <internalNodes>
        0 -1 126170 -3.1763231381773949e-03</internalNodes>
      <leafValues>
        2.4088200926780701e-01 -4.8405173420906067e-01</leafValues></_>
    <_>
      <internalNodes>
        0 -1 111131 4.5676073059439659e-03</internalNodes>
      <leafValues>
        6.7243106663227081e-02 -7.9358857870101929e-01</leafValues></_>
    <_>
      <internalNodes>
        0 -1 91037 4.8450555652379990e-02</internalNodes>
      <leafValues>
        -1.4473757147789001e-01 6.2552386522293091e-01</leafValues></_>
    <_>
      <internalNodes>
        0 -1 61099 2.6817175745964050e-01</internalNodes>
      <leafValues>
        -1.3462568819522858e-01 6.0168868303298950e-01</leafValues></_>
    <_>
      <internalNodes>
        0 -1 112842 -9.8084463388659060e-05</internalNodes>
      <leafValues>
        -4.9387434124946594e-01 1.4373755455017090e-01</leafValues></_>
    <_>
      <internalNodes>
        0 -1 126069 -1.3333094830159098e-04</internalNodes>
      <leafValues>
        3.4448072314262390e-01 -2.3488250374794006e-01</leafValues></_>
    <_>
      <internalNodes>
        0 -1 126107 -2.1245109383016825e-04</internalNodes>
      <leafValues>
        -7.3169851303100586e-01 1.0595947504043579e-01</leafValues></_></weakClassifiers></stage6>
</opencv_storage>
