<?xml version="1.0"?>
<opencv_storage>
<stage12>
  <maxWeakCount>24</maxWeakCount>
  <stageThreshold>-1.1890743970870972e+00</stageThreshold>
  <weakClassifiers>
    <_>
      <internalNodes>
        0 -1 112177 -2.6216678088530898e-04</internalNodes>
      <leafValues>
        8.3560399711132050e-02 -4.6164110302925110e-01</leafValues></_>
    <_>
      <internalNodes>
        0 -1 112650 -1.6514661256223917e-03</internalNodes>
      <leafValues>
        1.8786925077438354e-01 -3.4765422344207764e-01</leafValues></_>
    <_>
      <internalNodes>
        0 -1 77795 8.3394319517537951e-05</internalNodes>
      <leafValues>
        1.5055628120899200e-01 -3.8304299116134644e-01</leafValues></_>
    <_>
      <internalNodes>
        0 -1 151131 1.7707669176161289e-03</internalNodes>
      <leafValues>
        -6.6214017570018768e-02 6.4837229251861572e-01</leafValues></_>
    <_>
      <internalNodes>
        0 -1 98328 -3.3937203697860241e-03</internalNodes>
      <leafValues>
        3.6965164542198181e-01 -1.4106141030788422e-01</leafValues></_>
    <_>
      <internalNodes>
        0 -1 126355 -8.6513391579501331e-05</internalNodes>
      <leafValues>
        2.5998723506927490e-01 -2.1790763735771179e-01</leafValues></_>
    <_>
      <internalNodes>
        0 -1 125429 -2.5962148793041706e-03</internalNodes>
      <leafValues>
        -7.3979502916336060e-01 1.2385769933462143e-01</leafValues></_>
    <_>
      <internalNodes>
        0 -1 98371 4.4569913297891617e-03</internalNodes>
      <leafValues>
        -1.4674128592014313e-01 4.2050403356552124e-01</leafValues></_>
    <_>
      <internalNodes>
        0 -1 79478 -1.4090263284742832e-03</internalNodes>
      <leafValues>
        3.4559926390647888e-01 -1.3269746303558350e-01</leafValues></_>
    <_>
      <internalNodes>
        0 -1 96659 2.6166113093495369e-03</internalNodes>
      <leafValues>
        1.2433387339115143e-01 -4.9290451407432556e-01</leafValues></_>
    <_>
      <internalNodes>
        0 -1 76928 -4.9765324220061302e-03</internalNodes>
      <leafValues>
        2.6803278923034668e-01 -2.0607084035873413e-01</leafValues></_>
    <_>
      <internalNodes>
        0 -1 112844 -6.4725382253527641e-04</internalNodes>
      <leafValues>
        3.2830572128295898e-01 -2.1574871242046356e-01</leafValues></_>
    <_>
      <internalNodes>
        0 -1 126624 -5.4325279779732227e-04</internalNodes>
      <leafValues>
        -8.7090903520584106e-01 7.6291903853416443e-02</leafValues></_>
    <_>
      <internalNodes>
        0 -1 133037 7.7063394710421562e-03</internalNodes>
      <leafValues>
        -1.3948144018650055e-01 3.8347825407981873e-01</leafValues></_>
    <_>
      <internalNodes>
        0 -1 113332 8.3657127106562257e-05</internalNodes>
      <leafValues>
        1.1384721845388412e-01 -4.2163580656051636e-01</leafValues></_>
    <_>
      <internalNodes>
        0 -1 69530 3.4935034345835447e-03</internalNodes>
      <leafValues>
        -1.4792490005493164e-01 3.7900960445404053e-01</leafValues></_>
    <_>
      <internalNodes>
        0 -1 141088 3.3175284042954445e-03</internalNodes>
      <leafValues>
        -1.0640031844377518e-01 4.6057233214378357e-01</leafValues></_>
    <_>
      <internalNodes>
        0 -1 130400 -5.4343352094292641e-03</internalNodes>
      <leafValues>
        4.5826759934425354e-01 -1.2171618640422821e-01</leafValues></_>
    <_>
      <internalNodes>
        0 -1 125751 1.2034414976369590e-04</internalNodes>
      <leafValues>
        1.0592111945152283e-01 -4.8046734929084778e-01</leafValues></_>
    <_>
      <internalNodes>
        0 -1 119634 -2.9233959503471851e-04</internalNodes>
      <leafValues>
        2.3928983509540558e-01 -2.1268971264362335e-01</leafValues></_>
    <_>
      <internalNodes>
        0 -1 68120 -1.2688533752225339e-04</internalNodes>
      <leafValues>
        2.6126617193222046e-01 -2.4454501271247864e-01</leafValues></_>
    <_>
      <internalNodes>
        0 -1 419 3.2268751412630081e-02</internalNodes>
      <leafValues>
        -1.4393542706966400e-01 3.3775916695594788e-01</leafValues></_>
    <_>
      <internalNodes>
        0 -1 112573 2.2910321422386914e-04</internalNodes>
      <leafValues>
        7.1470588445663452e-02 -6.5364331007003784e-01</leafValues></_>
    <_>
      <internalNodes>
        0 -1 95694 -1.1002742685377598e-03</internalNodes>
      <leafValues>
        1.9645263254642487e-01 -2.5178623199462891e-01</leafValues></_></weakClassifiers></stage12>
</opencv_storage>
