<?xml version="1.0"?>
<opencv_storage>
<cascade>
  <stageType>BOOST</stageType>
  <featureType>HAAR</featureType>
  <height>18</height>
  <width>18</width>
  <stageParams>
    <boostType>GAB</boostType>
    <minHitRate>9.9500000476837158e-01</minHitRate>
    <maxFalseAlarm>5.0000000000000000e-01</maxFalseAlarm>
    <weightTrimRate>9.4999999999999996e-01</weightTrimRate>
    <maxDepth>1</maxDepth>
    <maxWeakCount>100</maxWeakCount></stageParams>
  <featureParams>
    <maxCatCount>0</maxCatCount>
    <featSize>1</featSize>
    <mode>BASIC</mode></featureParams>
  <stageNum>8</stageNum>
  <stages>
    <!-- stage 0 -->
    <_>
      <maxWeakCount>1</maxWeakCount>
      <stageThreshold>7.4045801162719727e-01</stageThreshold>
      <weakClassifiers>
        <_>
          <internalNodes>
            0 -1 2 -4.3453681282699108e-03</internalNodes>
          <leafValues>
            7.4045801162719727e-01 -9.8586571216583252e-01</leafValues></_></weakClassifiers></_>
    <!-- stage 1 -->
    <_>
      <maxWeakCount>4</maxWeakCount>
      <stageThreshold>-3.7827706336975098e-01</stageThreshold>
      <weakClassifiers>
        <_>
          <internalNodes>
            0 -1 5 -8.5819875821471214e-03</internalNodes>
          <leafValues>
            -9.2771083116531372e-01 6.6351211071014404e-01</leafValues></_>
        <_>
          <internalNodes>
            0 -1 22 7.5466159614734352e-05</internalNodes>
          <leafValues>
            -8.7162882089614868e-01 4.1850370168685913e-01</leafValues></_>
        <_>
          <internalNodes>
            0 -1 28 5.3022184874862432e-04</internalNodes>
          <leafValues>
            -7.0991080999374390e-01 4.4906127452850342e-01</leafValues></_>
        <_>
          <internalNodes>
            0 -1 0 -6.9393282756209373e-03</internalNodes>
          <leafValues>
            5.3975045680999756e-01 -5.3229302167892456e-01</leafValues></_></weakClassifiers></_>
    <!-- stage 2 -->
    <_>
      <maxWeakCount>4</maxWeakCount>
      <stageThreshold>5.9949036687612534e-02</stageThreshold>
      <weakClassifiers>
        <_>
          <internalNodes>
            0 -1 17 -2.5688032619655132e-03</internalNodes>
          <leafValues>
            -8.8584476709365845e-01 6.0550457239151001e-01</leafValues></_>
        <_>
          <internalNodes>
            0 -1 20 -5.4098931286716834e-05</internalNodes>
          <leafValues>
            3.8802656531333923e-01 -9.6407777070999146e-01</leafValues></_>
        <_>
          <internalNodes>
            0 -1 19 -7.5745751382783055e-04</internalNodes>
          <leafValues>
            -9.0341484546661377e-01 2.8694126009941101e-01</leafValues></_>
        <_>
          <internalNodes>
            0 -1 16 -1.7677719006314874e-04</internalNodes>
          <leafValues>
            2.7082595229148865e-01 -9.8508208990097046e-01</leafValues></_></weakClassifiers></_>
    <!-- stage 3 -->
    <_>
      <maxWeakCount>4</maxWeakCount>
      <stageThreshold>-8.4487688541412354e-01</stageThreshold>
      <weakClassifiers>
        <_>
          <internalNodes>
            0 -1 19 8.6121400818228722e-04</internalNodes>
          <leafValues>
            5.8655291795730591e-01 -9.0663391351699829e-01</leafValues></_>
        <_>
          <internalNodes>
            0 -1 7 -3.4401635639369488e-04</internalNodes>
          <leafValues>
            -9.4889611005783081e-01 3.1848001480102539e-01</leafValues></_>
        <_>
          <internalNodes>
            0 -1 10 -5.8041405281983316e-05</internalNodes>
          <leafValues>
            2.9445651173591614e-01 -7.7061581611633301e-01</leafValues></_>
        <_>
          <internalNodes>
            0 -1 9 2.2886269725859165e-03</internalNodes>
          <leafValues>
            2.8808209300041199e-01 -8.8555818796157837e-01</leafValues></_></weakClassifiers></_>
    <!-- stage 4 -->
    <_>
      <maxWeakCount>4</maxWeakCount>
      <stageThreshold>-5.1837581396102905e-01</stageThreshold>
      <weakClassifiers>
        <_>
          <internalNodes>
            0 -1 3 -4.3719760142266750e-03</internalNodes>
          <leafValues>
            -9.5876288414001465e-01 5.8250498771667480e-01</leafValues></_>
        <_>
          <internalNodes>
            0 -1 28 3.4117716131731868e-04</internalNodes>
          <leafValues>
            -7.2871476411819458e-01 3.7703698873519897e-01</leafValues></_>
        <_>
          <internalNodes>
            0 -1 21 -2.6700296439230442e-04</internalNodes>
          <leafValues>
            -9.1874009370803833e-01 2.7169466018676758e-01</leafValues></_>
        <_>
          <internalNodes>
            0 -1 6 -4.5001846738159657e-03</internalNodes>
          <leafValues>
            4.4711610674858093e-01 -5.5917769670486450e-01</leafValues></_></weakClassifiers></_>
    <!-- stage 5 -->
    <_>
      <maxWeakCount>4</maxWeakCount>
      <stageThreshold>4.4951554387807846e-02</stageThreshold>
      <weakClassifiers>
        <_>
          <internalNodes>
            0 -1 25 1.9882533524651080e-04</internalNodes>
          <leafValues>
            6.2246489524841309e-01 -8.3228510618209839e-01</leafValues></_>
        <_>
          <internalNodes>
            0 -1 24 4.4998581870459020e-04</internalNodes>
          <leafValues>
            3.9024782180786133e-01 -9.1443896293640137e-01</leafValues></_>
        <_>
          <internalNodes>
            0 -1 11 -2.3213779786601663e-04</internalNodes>
          <leafValues>
            2.7030804753303528e-01 -9.7874230146408081e-01</leafValues></_>
        <_>
          <internalNodes>
            0 -1 26 -1.7592551012057811e-04</internalNodes>
          <leafValues>
            -9.1982197761535645e-01 2.1668080985546112e-01</leafValues></_></weakClassifiers></_>
    <!-- stage 6 -->
    <_>
      <maxWeakCount>5</maxWeakCount>
      <stageThreshold>-5.7317399978637695e-01</stageThreshold>
      <weakClassifiers>
        <_>
          <internalNodes>
            0 -1 23 -1.8533904221840203e-04</internalNodes>
          <leafValues>
            6.1686229705810547e-01 -6.7680609226226807e-01</leafValues></_>
        <_>
          <internalNodes>
            0 -1 4 8.4051804151386023e-04</internalNodes>
          <leafValues>
            3.3111956715583801e-01 -9.4834387302398682e-01</leafValues></_>
        <_>
          <internalNodes>
            0 -1 10 -6.8835113779641688e-05</internalNodes>
          <leafValues>
            3.2395315170288086e-01 -7.8870260715484619e-01</leafValues></_>
        <_>
          <internalNodes>
            0 -1 15 1.4503672719001770e-04</internalNodes>
          <leafValues>
            -7.0684689283370972e-01 3.2387900352478027e-01</leafValues></_>
        <_>
          <internalNodes>
            0 -1 13 -5.4601789452135563e-04</internalNodes>
          <leafValues>
            -9.4771707057952881e-01 2.3733612895011902e-01</leafValues></_></weakClassifiers></_>
    <!-- stage 7 -->
    <_>
      <maxWeakCount>6</maxWeakCount>
      <stageThreshold>-8.0769425630569458e-01</stageThreshold>
      <weakClassifiers>
        <_>
          <internalNodes>
            0 -1 12 8.7713875109329820e-04</internalNodes>
          <leafValues>
            5.5984175205230713e-01 -8.7830686569213867e-01</leafValues></_>
        <_>
          <internalNodes>
            0 -1 27 -6.7191070411354303e-04</internalNodes>
          <leafValues>
            4.4031438231468201e-01 -6.2041425704956055e-01</leafValues></_>
        <_>
          <internalNodes>
            0 -1 14 -3.1333017977885902e-04</internalNodes>
          <leafValues>
            2.6095971465110779e-01 -9.4623136520385742e-01</leafValues></_>
        <_>
          <internalNodes>
            0 -1 8 -4.2226765071973205e-04</internalNodes>
          <leafValues>
            2.9496547579765320e-01 -6.7838144302368164e-01</leafValues></_>
        <_>
          <internalNodes>
            0 -1 18 5.4549088235944510e-04</internalNodes>
          <leafValues>
            -8.6245018243789673e-01 2.6220437884330750e-01</leafValues></_>
        <_>
          <internalNodes>
            0 -1 1 -1.4894496649503708e-02</internalNodes>
          <leafValues>
            5.8007949590682983e-01 -4.4059675931930542e-01</leafValues></_></weakClassifiers></_></stages>
  <features>
    <_>
      <rects>
        <_>
          8 3 2 4 -1.</_>
        <_>
          8 5 2 2 2.</_></rects>
      <tilted>0</tilted></_>
    <_>
      <rects>
        <_>
          8 3 3 4 -1.</_>
        <_>
          8 5 3 2 2.</_></rects>
      <tilted>0</tilted></_>
    <_>
      <rects>
        <_>
          8 7 4 5 -1.</_>
        <_>
          10 7 2 5 2.</_></rects>
      <tilted>0</tilted></_>
    <_>
      <rects>
        <_>
          8 7 6 6 -1.</_>
        <_>
          8 10 6 3 2.</_></rects>
      <tilted>0</tilted></_>
    <_>
      <rects>
        <_>
          8 8 2 2 -1.</_>
        <_>
          8 9 2 1 2.</_></rects>
      <tilted>0</tilted></_>
    <_>
      <rects>
        <_>
          8 9 6 3 -1.</_>
        <_>
          10 9 2 3 3.</_></rects>
      <tilted>0</tilted></_>
    <_>
      <rects>
        <_>
          9 3 2 4 -1.</_>
        <_>
          9 5 2 2 2.</_></rects>
      <tilted>0</tilted></_>
    <_>
      <rects>
        <_>
          9 7 3 6 -1.</_>
        <_>
          9 9 3 2 3.</_></rects>
      <tilted>0</tilted></_>
    <_>
      <rects>
        <_>
          9 8 3 3 -1.</_>
        <_>
          10 8 1 3 3.</_></rects>
      <tilted>0</tilted></_>
    <_>
      <rects>
        <_>
          9 8 2 4 -1.</_>
        <_>
          9 10 2 2 2.</_></rects>
      <tilted>0</tilted></_>
    <_>
      <rects>
        <_>
          9 9 3 1 -1.</_>
        <_>
          10 9 1 1 3.</_></rects>
      <tilted>0</tilted></_>
    <_>
      <rects>
        <_>
          9 9 6 1 -1.</_>
        <_>
          11 9 2 1 3.</_></rects>
      <tilted>0</tilted></_>
    <_>
      <rects>
        <_>
          9 9 2 3 -1.</_>
        <_>
          9 10 2 1 3.</_></rects>
      <tilted>0</tilted></_>
    <_>
      <rects>
        <_>
          9 9 3 3 -1.</_>
        <_>
          9 10 3 1 3.</_></rects>
      <tilted>0</tilted></_>
    <_>
      <rects>
        <_>
          9 10 6 1 -1.</_>
        <_>
          11 10 2 1 3.</_></rects>
      <tilted>0</tilted></_>
    <_>
      <rects>
        <_>
          10 6 2 6 -1.</_>
        <_>
          10 8 2 2 3.</_></rects>
      <tilted>0</tilted></_>
    <_>
      <rects>
        <_>
          10 10 2 2 -1.</_>
        <_>
          11 10 1 2 2.</_></rects>
      <tilted>0</tilted></_>
    <_>
      <rects>
        <_>
          10 10 4 1 -1.</_>
        <_>
          12 10 2 1 2.</_></rects>
      <tilted>0</tilted></_>
    <_>
      <rects>
        <_>
          11 6 1 6 -1.</_>
        <_>
          11 9 1 3 2.</_></rects>
      <tilted>0</tilted></_>
    <_>
      <rects>
        <_>
          11 9 3 2 -1.</_>
        <_>
          12 9 1 2 3.</_></rects>
      <tilted>0</tilted></_>
    <_>
      <rects>
        <_>
          11 10 2 1 -1.</_>
        <_>
          12 10 1 1 2.</_></rects>
      <tilted>0</tilted></_>
    <_>
      <rects>
        <_>
          11 10 1 3 -1.</_>
        <_>
          11 11 1 1 3.</_></rects>
      <tilted>0</tilted></_>
    <_>
      <rects>
        <_>
          12 7 1 4 -1.</_>
        <_>
          12 9 1 2 2.</_></rects>
      <tilted>0</tilted></_>
    <_>
      <rects>
        <_>
          12 9 2 2 -1.</_>
        <_>
          13 9 1 2 2.</_></rects>
      <tilted>0</tilted></_>
    <_>
      <rects>
        <_>
          12 9 2 3 -1.</_>
        <_>
          12 10 2 1 3.</_></rects>
      <tilted>0</tilted></_>
    <_>
      <rects>
        <_>
          12 10 1 2 -1.</_>
        <_>
          12 11 1 1 2.</_></rects>
      <tilted>0</tilted></_>
    <_>
      <rects>
        <_>
          13 9 1 2 -1.</_>
        <_>
          13 10 1 1 2.</_></rects>
      <tilted>0</tilted></_>
    <_>
      <rects>
        <_>
          13 9 3 1 -1.</_>
        <_>
          14 9 1 1 3.</_></rects>
      <tilted>0</tilted></_>
    <_>
      <rects>
        <_>
          14 9 2 1 -1.</_>
        <_>
          15 9 1 1 2.</_></rects>
      <tilted>0</tilted></_></features></cascade>
</opencv_storage>
