<?xml version="1.0"?>
<opencv_storage>
<stage6>
  <maxWeakCount>5</maxWeakCount>
  <stageThreshold>-5.7317399978637695e-01</stageThreshold>
  <weakClassifiers>
    <_>
      <internalNodes>
        0 -1 47228 -1.8533904221840203e-04</internalNodes>
      <leafValues>
        6.1686229705810547e-01 -6.7680609226226807e-01</leafValues></_>
    <_>
      <internalNodes>
        0 -1 37742 8.4051804151386023e-04</internalNodes>
      <leafValues>
        3.3111956715583801e-01 -9.4834387302398682e-01</leafValues></_>
    <_>
      <internalNodes>
        0 -1 40701 -6.8835113779641688e-05</internalNodes>
      <leafValues>
        3.2395315170288086e-01 -7.8870260715484619e-01</leafValues></_>
    <_>
      <internalNodes>
        0 -1 42760 1.4503672719001770e-04</internalNodes>
      <leafValues>
        -7.0684689283370972e-01 3.2387900352478027e-01</leafValues></_>
    <_>
      <internalNodes>
        0 -1 40760 -5.4601789452135563e-04</internalNodes>
      <leafValues>
        -9.4771707057952881e-01 2.3733612895011902e-01</leafValues></_></weakClassifiers></stage6>
</opencv_storage>
